SVM-light Version V6.02
0 # kernel type
3 # kernel parameter -d 
1 # kernel parameter -g 
1 # kernel parameter -s 
1 # kernel parameter -r 
empty# kernel parameter -u 
500 # highest feature index 
59999 # number of training documents 
10 # number of support vectors plus 1 
-1 # threshold b, each following line is a SV (starting with alpha*y)
4.0883255974027381999275837332622e-17 212:1 242:1 #
3.2859439380993970118073976021423e-17 107:1 252:1 299:1 #
9.170076106323895771101657476139e-18 167:1 242:1 329:1 349:1 361:1 491:1 #
7.6417300886032475030806849033083e-18 172:1 184:1 242:1 260:1 269:1 341:1 432:1 #
4.9671245575921122636720051459602e-18 83:1 107:1 182:1 199:1 212:1 409:1 #
1.7707769559395694243640622171901e-17 212:1 229:1 374:1 393:1 #
9.7392732576676298310352000318202e-17 107:1 #
3.2464244192225428661466785413297e-17 21:1 67:1 399:1 #
2.6561654339093533661741155708908e-17 4:1 212:1 410:1 #
